# DATE: 2023-9-22    UNITS: lj   CONTRIBUTOR: Jacob
# Short-ranged modified harmonic potential for type A beads

HBOND_HARMONIC
N 1001 

1 0.0 71.8427667794286 199.39885391383226
2 0.001 71.64349980306365 199.13509881606265
3 0.002 71.44449658179647 198.87134371829302
4 0.003 71.24575711562706 198.60758862052342
5 0.004 71.04728140455542 198.34383352275378
6 0.005 70.84906944858155 198.08007842498418
7 0.006 70.65112124770545 197.81632332721455
8 0.007 70.45343680192713 197.55256822944492
9 0.008 70.25601611124657 197.2888131316753
10 0.009000000000000001 70.05885917566377 197.02505803390568
11 0.01 69.86196599517875 196.76130293613608
12 0.011 69.6653365697915 196.49754783836644
13 0.012 69.46897089950203 196.23379274059684
14 0.013000000000000001 69.2728689843103 195.9700376428272
15 0.014 69.07703082421637 195.7062825450576
16 0.015 68.8814564192202 195.44252744728797
17 0.016 68.68614576932178 195.17877234951834
18 0.017 68.49109887452116 194.91501725174874
19 0.018000000000000002 68.2963157348183 194.6512621539791
20 0.019 68.1017963502132 194.3875070562095
21 0.02 67.90754072070587 194.12375195843987
22 0.021 67.7135488462963 193.85999686067026
23 0.022 67.51982072698453 193.59624176290063
24 0.023 67.32635636277053 193.332486665131
25 0.024 67.13315575365426 193.0687315673614
26 0.025 66.9402188996358 192.80497646959176
27 0.026000000000000002 66.74754580071507 192.54122137182216
28 0.027 66.55513645689214 192.27746627405253
29 0.028 66.36299086816699 192.01371117628292
30 0.029 66.17110903453957 191.7499560785133
31 0.03 65.97949095600995 191.4862009807437
32 0.031 65.7881366325781 191.22244588297406
33 0.032 65.597046064244 190.95869078520442
34 0.033 65.40621925100768 190.69493568743482
35 0.034 65.21565619286913 190.4311805896652
36 0.035 65.02535688982836 190.16742549189559
37 0.036000000000000004 64.83532134188535 189.90367039412595
38 0.037 64.64554954904011 189.63991529635635
39 0.038 64.45604151129263 189.37616019858672
40 0.039 64.26679722864291 189.1124051008171
41 0.04 64.077816701091 188.84865000304748
42 0.041 63.889099928636824 188.58489490527785
43 0.042 63.70064691128043 188.32113980750825
44 0.043000000000000003 63.51245764902181 188.0573847097386
45 0.044 63.324532141860956 187.793629611969
46 0.045 63.13687038979788 187.52987451419938
47 0.046 62.94947239283256 187.26611941642977
48 0.047 62.76233815096501 187.00236431866014
49 0.048 62.575467664195244 186.7386092208905
50 0.049 62.38886093252323 186.4748541231209
51 0.05 62.20251795594899 186.21109902535127
52 0.051000000000000004 62.01643873447253 185.94734392758167
53 0.052000000000000005 61.83062326809383 185.68358882981204
54 0.053 61.64507155681291 185.41983373204243
55 0.054 61.45978360062975 185.1560786342728
56 0.055 61.274759399544365 184.8923235365032
57 0.056 61.089998953556744 184.62856843873357
58 0.057 60.9055022626669 184.36481334096393
59 0.058 60.72126932687482 184.10105824319433
60 0.059000000000000004 60.5373001461805 183.8373031454247
61 0.06 60.35359472058397 183.5735480476551
62 0.061 60.17015305008522 183.3097929498855
63 0.062 59.986975134684194 183.04603785211586
64 0.063 59.80406097438098 182.78228275434626
65 0.064 59.6214105691755 182.51852765657662
66 0.065 59.43902391906783 182.25477255880702
67 0.066 59.25690102405788 181.99101746103736
68 0.067 59.075041884145755 181.72726236326778
69 0.068 58.893446499331354 181.46350726549812
70 0.069 58.71211486961476 181.19975216772855
71 0.07 58.53104699499589 180.9359970699589
72 0.07100000000000001 58.35024287547484 180.6722419721893
73 0.07200000000000001 58.16970251105152 180.40848687441965
74 0.073 57.989425901726 180.14473177665005
75 0.074 57.80941304749824 179.88097667888044
76 0.075 57.62966394836824 179.6172215811108
77 0.076 57.45017860433602 179.3534664833412
78 0.077 57.27095701540156 179.08971138557158
79 0.078 57.091999181564866 178.82595628780197
80 0.079 56.91330510282595 178.56220119003234
81 0.08 56.7348747791848 178.29844609226274
82 0.081 56.556708210641425 178.0346909944931
83 0.082 56.37880539719582 177.77093589672347
84 0.083 56.20116633884798 177.50718079895387
85 0.084 56.02379103559791 177.24342570118424
86 0.085 55.84667948744561 176.97967060341463
87 0.08600000000000001 55.669831694391085 176.715915505645
88 0.08700000000000001 55.49324765643432 176.4521604078754
89 0.088 55.31692737357533 176.18840531010576
90 0.089 55.140870845814106 175.92465021233616
91 0.09 54.96507807315066 175.66089511456653
92 0.091 54.78954905558497 175.3971400167969
93 0.092 54.61428379311707 175.1333849190273
94 0.093 54.43928228574692 174.86962982125766
95 0.094 54.26454453347454 174.60587472348806
96 0.095 54.09007053629995 174.34211962571842
97 0.096 53.91586029422311 174.07836452794882
98 0.097 53.741913807244046 173.8146094301792
99 0.098 53.568231075362746 173.55085433240956
100 0.099 53.39481209857923 173.28709923463995
101 0.1 53.22165687689347 173.02334413687032
102 0.101 53.048765410305485 172.75958903910072
103 0.10200000000000001 52.87613769881527 172.49583394133109
104 0.10300000000000001 52.703773742422825 172.23207884356148
105 0.10400000000000001 52.53167354112814 171.96832374579185
106 0.105 52.35983709493124 171.70456864802225
107 0.106 52.1882644038321 171.4408135502526
108 0.107 52.01695546783073 171.17705845248298
109 0.108 51.84591028692713 170.91330335471338
110 0.109 51.6751288611213 170.64954825694375
111 0.11 51.50461119041324 170.38579315917414
112 0.111 51.33435727480296 170.1220380614045
113 0.112 51.16436711429044 169.8582829636349
114 0.113 50.994640708875686 169.59452786586527
115 0.114 50.825178058558706 169.33077276809567
116 0.115 50.655979163339495 169.06701767032604
117 0.116 50.487044023218054 168.8032625725564
118 0.117 50.318372638194376 168.5395074747868
119 0.11800000000000001 50.14996500826848 168.27575237701717
120 0.11900000000000001 49.98182113344034 168.01199727924757
121 0.12 49.813941013709986 167.74824218147793
122 0.121 49.64632464907739 167.48448708370833
123 0.122 49.47897203954257 167.2207319859387
124 0.123 49.311883185105515 166.95697688816907
125 0.124 49.14505808576623 166.69322179039946
126 0.125 48.97849674152471 166.42946669262983
127 0.126 48.81219915238097 166.16571159486023
128 0.127 48.646165318334994 165.9019564970906
129 0.128 48.48039523938679 165.638201399321
130 0.129 48.31488891553635 165.37444630155136
131 0.13 48.14964634678368 165.11069120378176
132 0.131 47.984667533128786 164.84693610601212
133 0.132 47.81995247457166 164.5831810082425
134 0.133 47.655501171112306 164.3194259104729
135 0.134 47.49131362275072 164.05567081270326
136 0.135 47.3273898294869 163.79191571493365
137 0.136 47.16372979132085 163.52816061716402
138 0.137 47.00033350825257 163.26440551939442
139 0.138 46.837200980282056 163.00065042162478
140 0.139 46.67433220740932 162.73689532385518
141 0.14 46.51172718963435 162.47314022608555
142 0.14100000000000001 46.34938592695715 162.20938512831592
143 0.14200000000000002 46.187308419377715 161.9456300305463
144 0.14300000000000002 46.02549466689605 161.68187493277668
145 0.14400000000000002 45.86394466951216 161.41811983500708
146 0.145 45.702658427226034 161.15436473723744
147 0.146 45.541635940037686 160.89060963946784
148 0.147 45.3808772079471 160.6268545416982
149 0.148 45.22038223095429 160.36309944392858
150 0.149 45.06015100905925 160.09934434615897
151 0.15 44.90018354226198 159.83558924838934
152 0.151 44.740479830562464 159.57183415061974
153 0.152 44.581039873960734 159.3080790528501
154 0.153 44.421863672456766 159.0443239550805
155 0.154 44.26295122605057 158.78056885731087
156 0.155 44.104302534742146 158.51681375954126
157 0.156 43.94591759853149 158.25305866177163
158 0.157 43.7877964174186 157.989303564002
159 0.158 43.629938991403485 157.7255484662324
160 0.159 43.472345320486134 157.46179336846276
161 0.16 43.31501540466656 157.19803827069316
162 0.161 43.15794924394475 156.93428317292353
163 0.162 43.001146838320714 156.67052807515392
164 0.163 42.84460818779444 156.4067729773843
165 0.164 42.68833329236594 156.1430178796147
166 0.165 42.532322152035206 155.87926278184506
167 0.166 42.37657476680225 155.61550768407542
168 0.167 42.22109113666706 155.35175258630582
169 0.168 42.06587126162964 155.0879974885362
170 0.169 41.91091514168998 154.82424239076659
171 0.17 41.756222776848105 154.56048729299695
172 0.171 41.60179416710399 154.29673219522735
173 0.17200000000000001 41.44762931245765 154.03297709745772
174 0.17300000000000001 41.29372821290907 153.76922199968809
175 0.17400000000000002 41.14009086845827 153.50546690191848
176 0.17500000000000002 40.986717279105235 153.24171180414885
177 0.176 40.833607444849996 152.97795670637927
178 0.177 40.68076136569248 152.7142016086096
179 0.178 40.528179041632775 152.45044651084004
180 0.179 40.3758604726708 152.18669141307038
181 0.18 40.22380565880663 151.9229363153008
182 0.181 40.0720146000402 151.65918121753114
183 0.182 39.920487296371576 151.39542611976154
184 0.183 39.76922374780067 151.1316710219919
185 0.184 39.61822395432759 150.8679159242223
186 0.185 39.46748791595223 150.60416082645267
187 0.186 39.31701563267468 150.34040572868307
188 0.187 39.166807104494865 150.07665063091343
189 0.188 39.01686233141285 149.81289553314383
190 0.189 38.86718131342858 149.5491404353742
191 0.19 38.71776405054211 149.2853853376046
192 0.191 38.56861054275336 149.02163023983493
193 0.192 38.41972079006243 148.75787514206536
194 0.193 38.271094792469235 148.4941200442957
195 0.194 38.12273254997384 148.23036494652612
196 0.195 37.97463406257618 147.96660984875646
197 0.196 37.82679933027632 147.7028547509869
198 0.197 37.679228353074215 147.43909965321723
199 0.198 37.5319211309699 147.17534455544762
200 0.199 37.384877663963316 146.911589457678
201 0.2 37.23809795205454 146.6478343599084
202 0.201 37.0915819952435 146.38407926213875
203 0.202 36.94532979353026 146.12032416436915
204 0.203 36.79934134691476 145.85656906659952
205 0.20400000000000001 36.65361665539706 145.59281396882992
206 0.20500000000000002 36.5081557189771 145.32905887106028
207 0.20600000000000002 36.36295853765494 145.06530377329068
208 0.20700000000000002 36.218025111430514 144.80154867552102
209 0.20800000000000002 36.0733554403039 144.53779357775144
210 0.209 35.92894952427503 144.2740384799818
211 0.21 35.78480736334393 144.0102833822122
212 0.211 35.6409289575106 143.74652828444258
213 0.212 35.497314306775046 143.48277318667297
214 0.213 35.35396341113726 143.21901808890334
215 0.214 35.21087627059724 142.95526299113374
216 0.215 35.06805288515499 142.6915078933641
217 0.216 34.92549325481051 142.42775279559447
218 0.217 34.7831973795638 142.16399769782487
219 0.218 34.64116525941486 141.90024260005524
220 0.219 34.49939689436369 141.63648750228563
221 0.22 34.35789228441029 141.372732404516
222 0.221 34.21665142955466 141.1089773067464
223 0.222 34.0756743297968 140.84522220897676
224 0.223 33.934960985136705 140.58146711120713
225 0.224 33.79451139557439 140.31771201343753
226 0.225 33.65432556110983 140.0539569156679
227 0.226 33.514403481743045 139.7902018178983
228 0.227 33.37474515747403 139.52644672012866
229 0.228 33.23535058830279 139.26269162235906
230 0.229 33.09621977422931 138.99893652458942
231 0.23 32.95735271525361 138.73518142681982
232 0.231 32.81874941137567 138.4714263290502
233 0.232 32.68040986259551 138.20767123128056
234 0.233 32.542334068913114 137.94391613351095
235 0.234 32.404522030328486 137.68016103574132
236 0.23500000000000001 32.266973746841636 137.41640593797172
237 0.23600000000000002 32.12968921845255 137.15265084020209
238 0.23700000000000002 31.99266844516123 136.88889574243248
239 0.23800000000000002 31.85591142696768 136.62514064466285
240 0.23900000000000002 31.7194181638719 136.36138554689325
241 0.24 31.58318865587389 136.0976304491236
242 0.241 31.44722290297365 135.83387535135398
243 0.242 31.31152090517118 135.57012025358438
244 0.243 31.176082662466477 135.30636515581475
245 0.244 31.040908174859553 135.04261005804514
246 0.245 30.90599744235039 134.7788549602755
247 0.246 30.771350464939005 134.5150998625059
248 0.247 30.63696724262538 134.25134476473627
249 0.248 30.502847775409528 133.98758966696664
250 0.249 30.36899206329145 133.72383456919704
251 0.25 30.235400106271136 133.4600794714274
252 0.251 30.10207190434859 133.1963243736578
253 0.252 29.969007457523823 132.93256927588817
254 0.253 29.836206765796817 132.66881417811857
255 0.254 29.70366982916758 132.40505908034893
256 0.255 29.571396647636114 132.14130398257933
257 0.256 29.439387221202423 131.8775488848097
258 0.257 29.307641549866496 131.61379378704007
259 0.258 29.176159633628345 131.35003868927046
260 0.259 29.044941472487956 131.08628359150083
261 0.26 28.913987066445337 130.82252849373123
262 0.261 28.783296415500494 130.5587733959616
263 0.262 28.65286951965342 130.295018298192
264 0.263 28.52270637890411 130.03126320042236
265 0.264 28.392806993252574 129.76750810265276
266 0.265 28.263171362698806 129.50375300488312
267 0.266 28.133799487242804 129.2399979071135
268 0.267 28.00469136688458 128.9762428093439
269 0.268 27.87584700162412 128.71248771157425
270 0.269 27.74726639146143 128.44873261380465
271 0.27 27.61894953639651 128.18497751603502
272 0.271 27.49089643642936 127.9212224182654
273 0.272 27.36310709155998 127.65746732049578
274 0.273 27.235581501788367 127.39371222272617
275 0.274 27.108319667114525 127.12995712495655
276 0.275 26.981321587538453 126.86620202718693
277 0.276 26.854587263060154 126.60244692941731
278 0.277 26.728116693679617 126.33869183164768
279 0.278 26.601909879396857 126.07493673387806
280 0.279 26.475966820211863 125.81118163610844
281 0.28 26.350287516124638 125.54742653833883
282 0.281 26.224871967135186 125.28367144056921
283 0.28200000000000003 26.0997201732435 125.01991634279959
284 0.28300000000000003 25.974832134449585 124.75616124502997
285 0.28400000000000003 25.850207850753442 124.49240614726035
286 0.28500000000000003 25.725847322155065 124.22865104949074
287 0.28600000000000003 25.601750548654458 123.9648959517211
288 0.28700000000000003 25.47791753025162 123.70114085395149
289 0.28800000000000003 25.354348266946555 123.43738575618187
290 0.289 25.231042758739264 123.17363065841226
291 0.29 25.108001005629735 122.90987556064265
292 0.291 24.98522300761798 122.64612046287303
293 0.292 24.86270876470399 122.38236536510341
294 0.293 24.74045827688777 122.11861026733379
295 0.294 24.618471544169324 121.85485516956416
296 0.295 24.496748566548643 121.59110007179454
297 0.296 24.37528934402573 121.32734497402492
298 0.297 24.254093876600592 121.0635898762553
299 0.298 24.13316216427322 120.79983477848569
300 0.299 24.01249420704362 120.53607968071607
301 0.3 23.89209000491179 120.27232458294645
302 0.301 23.77194955787773 120.00856948517684
303 0.302 23.652072865941438 119.7448143874072
304 0.303 23.532459929102913 119.48105928963759
305 0.304 23.41311074736216 119.21730419186797
306 0.305 23.294025320719175 118.95354909409835
307 0.306 23.175203649173966 118.68979399632873
308 0.307 23.05664573272652 118.42603889855911
309 0.308 22.93835157137685 118.1622838007895
310 0.309 22.82032116512494 117.89852870301988
311 0.31 22.702554513970806 117.63477360525026
312 0.311 22.58505161791444 117.37101850748063
313 0.312 22.467812476955846 117.10726340971101
314 0.313 22.35083709109502 116.84350831194139
315 0.314 22.234125460331963 116.57975321417177
316 0.315 22.117677584666676 116.31599811640216
317 0.316 22.001493464099156 116.05224301863254
318 0.317 21.885573098629408 115.78848792086292
319 0.318 21.76991648825743 115.5247328230933
320 0.319 21.65452363298322 115.26097772532367
321 0.32 21.53939453280678 114.99722262755405
322 0.321 21.424529187728115 114.73346752978443
323 0.322 21.309927597747215 114.46971243201482
324 0.323 21.19558976286408 114.2059573342452
325 0.324 21.08151568307872 113.94220223647558
326 0.325 20.967705358391132 113.67844713870596
327 0.326 20.85415878880131 113.41469204093634
328 0.327 20.740875974309258 113.15093694316671
329 0.328 20.627856914914975 112.8871818453971
330 0.329 20.515101610618466 112.62342674762748
331 0.33 20.402610061419722 112.35967164985786
332 0.331 20.290382267318748 112.09591655208824
333 0.332 20.178418228315547 111.83216145431862
334 0.333 20.06671794441011 111.568406356549
335 0.334 19.95528141560245 111.30465125877939
336 0.335 19.844108641892554 111.04089616100977
337 0.336 19.733199623280427 110.77714106324014
338 0.337 19.622554359766074 110.51338596547052
339 0.338 19.512172851349487 110.2496308677009
340 0.339 19.402055098030672 109.98587576993128
341 0.34 19.292201099809624 109.72212067216167
342 0.341 19.18261085668635 109.45836557439205
343 0.342 19.07328436866084 109.19461047662243
344 0.343 18.9642216357331 108.93085537885281
345 0.34400000000000003 18.855422657903134 108.66710028108318
346 0.34500000000000003 18.746887435170937 108.40334518331356
347 0.34600000000000003 18.638615967536506 108.13959008554394
348 0.34700000000000003 18.530608254999848 107.87583498777433
349 0.34800000000000003 18.422864297560956 107.61207989000471
350 0.34900000000000003 18.31538409521984 107.34832479223509
351 0.35000000000000003 18.208167647976488 107.08456969446547
352 0.35100000000000003 18.101214955830905 106.82081459669585
353 0.352 17.9945260187831 106.55705949892624
354 0.353 17.88810083683306 106.29330440115662
355 0.354 17.78193940998079 106.029549303387
356 0.355 17.676041738226285 105.76579420561738
357 0.356 17.570407821569553 105.50203910784776
358 0.357 17.465037660010587 105.23828401007815
359 0.358 17.359931253549398 104.97452891230853
360 0.359 17.255088602185975 104.71077381453891
361 0.36 17.150509705920317 104.44701871676929
362 0.361 17.046194564752437 104.18326361899966
363 0.362 16.94214317868232 103.91950852123004
364 0.363 16.838355547709973 103.65575342346042
365 0.364 16.734831671835398 103.3919983256908
366 0.365 16.63157155105859 103.12824322792119
367 0.366 16.528575185379555 102.86448813015157
368 0.367 16.42584257479829 102.60073303238195
369 0.368 16.32337371931479 102.33697793461234
370 0.369 16.221168618929063 102.0732228368427
371 0.37 16.11922727364111 101.80946773907309
372 0.371 16.017549683450916 101.54571264130347
373 0.372 15.916135848358499 101.28195754353385
374 0.373 15.814985768363853 101.01820244576423
375 0.374 15.714099443466973 100.75444734799461
376 0.375 15.613476873667862 100.490692250225
377 0.376 15.513118058966521 100.22693715245538
378 0.377 15.41302299936295 99.96318205468575
379 0.378 15.313191694857151 99.69942695691613
380 0.379 15.213624145449119 99.43567185914651
381 0.38 15.114320351138856 99.17191676137689
382 0.381 15.015280311926363 98.90816166360727
383 0.382 14.916504027811643 98.64440656583766
384 0.383 14.817991498794688 98.38065146806804
385 0.384 14.719742724875507 98.11689637029842
386 0.385 14.621757706054092 97.8531412725288
387 0.386 14.524036442330447 97.58938617475917
388 0.387 14.426578933704574 97.32563107698955
389 0.388 14.329385180176468 97.06187597921993
390 0.389 14.232455181746134 96.79812088145032
391 0.39 14.135788938413567 96.5343657836807
392 0.391 14.03938645017877 96.27061068591108
393 0.392 13.943247717041748 96.00685558814146
394 0.393 13.84737273900249 95.74310049037184
395 0.394 13.751761516061 95.47934539260221
396 0.395 13.656414048217284 95.2155902948326
397 0.396 13.561330335471338 94.95183519706298
398 0.397 13.466510377823157 94.68808009929336
399 0.398 13.37195417527275 94.42432500152374
400 0.399 13.277661727820108 94.16056990375412
401 0.4 13.18363303546524 93.8968148059845
402 0.401 13.089868098208141 93.63305970821489
403 0.402 12.996366916048812 93.36930461044525
404 0.403 12.903129488987249 93.10554951267564
405 0.404 12.810155817023459 92.84179441490602
406 0.405 12.717445900157438 92.5780393171364
407 0.406 12.624999738389187 92.31428421936678
408 0.40700000000000003 12.532817331718705 92.05052912159717
409 0.40800000000000003 12.440898680145994 91.78677402382755
410 0.40900000000000003 12.34924378367105 91.52301892605793
411 0.41000000000000003 12.257852642293876 91.25926382828831
412 0.41100000000000003 12.166725256014471 90.99550873051868
413 0.41200000000000003 12.07586162483284 90.73175363274906
414 0.41300000000000003 11.985261748748973 90.46799853497944
415 0.41400000000000003 11.89492562776288 90.20424343720983
416 0.41500000000000004 11.804853261874555 89.94048833944021
417 0.41600000000000004 11.715044651084 89.67673324167059
418 0.417 11.625499795391217 89.41297814390099
419 0.418 11.5362186947962 89.14922304613137
420 0.419 11.447201349298956 88.88546794836174
421 0.42 11.358447758899478 88.62171285059212
422 0.421 11.269957923597772 88.3579577528225
423 0.422 11.181731843393834 88.09420265505288
424 0.423 11.093769518287665 87.83044755728326
425 0.424 11.006070948279268 87.56669245951365
426 0.425 10.918636133368636 87.30293736174403
427 0.426 10.831465073555778 87.03918226397441
428 0.427 10.744557768840687 86.77542716620478
429 0.428 10.657914219223368 86.51167206843516
430 0.429 10.571534424703819 86.24791697066554
431 0.43 10.485418385282037 85.98416187289592
432 0.431 10.399566100958026 85.7204067751263
433 0.432 10.313977571731783 85.45665167735669
434 0.433 10.228652797603312 85.19289657958707
435 0.434 10.143591778572612 84.92914148181745
436 0.435 10.058794514639677 84.66538638404784
437 0.436 9.974261005804514 84.4016312862782
438 0.437 9.889991252067121 84.13787618850859
439 0.438 9.805985253427497 83.87412109073897
440 0.439 9.722243009885643 83.61036599296935
441 0.44 9.638764521441558 83.34661089519973
442 0.441 9.555549788095243 83.08285579743011
443 0.442 9.472598809846698 82.8191006996605
444 0.443 9.389911586695922 82.55534560189088
445 0.444 9.307488118642915 82.29159050412125
446 0.445 9.22532840568768 82.02783540635163
447 0.446 9.143432447830213 81.76408030858201
448 0.447 9.061800245070515 81.50032521081239
449 0.448 8.980431797408588 81.23657011304277
450 0.449 8.89932710484443 80.97281501527316
451 0.45 8.81848616737804 80.70905991750354
452 0.451 8.737908985009422 80.44530481973392
453 0.452 8.657595557738574 80.18154972196429
454 0.453 8.577545885565495 79.91779462419467
455 0.454 8.497759968490184 79.65403952642505
456 0.455 8.418237806512643 79.39028442865543
457 0.456 8.338979399632873 79.12652933088582
458 0.457 8.259984747850872 78.8627742331162
459 0.458 8.181253851166641 78.59901913534658
460 0.459 8.10278670958018 78.33526403757696
461 0.46 8.024583323091486 78.07150893980734
462 0.461 7.946643691700563 77.80775384203771
463 0.462 7.8689678154074105 77.5439987442681
464 0.463 7.791555694212027 77.28024364649848
465 0.464 7.714407328114413 77.01648854872886
466 0.465 7.637522717114569 76.75273345095924
467 0.466 7.560901861212496 76.48897835318962
468 0.467 7.484544760408189 76.22522325542
469 0.468 7.408451414701656 75.96146815765039
470 0.46900000000000003 7.332621824092888 75.69771305988075
471 0.47000000000000003 7.257055988581891 75.43395796211114
472 0.47100000000000003 7.181753908168668 75.17020286434152
473 0.47200000000000003 7.1067155828532105 74.9064477665719
474 0.47300000000000003 7.031941012635523 74.64269266880228
475 0.47400000000000003 6.957430197515604 74.37893757103267
476 0.47500000000000003 6.883183137493457 74.11518247326305
477 0.47600000000000003 6.809199832569078 73.85142737549343
478 0.47700000000000004 6.73548028274247 73.5876722777238
479 0.47800000000000004 6.66202448801363 73.32391717995418
480 0.47900000000000004 6.588832448382561 73.06016208218456
481 0.48 6.515904163849266 72.79640698441496
482 0.481 6.443239634413736 72.53265188664534
483 0.482 6.370838860075976 72.26889678887572
484 0.483 6.298701840835983 72.0051416911061
485 0.484 6.226828576693762 71.74138659333649
486 0.485 6.155219067649311 71.47763149556687
487 0.486 6.083873313702629 71.21387639779724
488 0.487 6.012791314853716 70.95012130002762
489 0.488 5.9419730711025736 70.686366202258
490 0.489 5.8714185824492 70.42261110448838
491 0.49 5.801127848893598 70.15885600671876
492 0.491 5.731100870435762 69.89510090894915
493 0.492 5.661337647075699 69.63134581117953
494 0.493 5.591838178813404 69.36759071340991
495 0.494 5.522602465648879 69.10383561564028
496 0.495 5.4536305075821225 68.84008051787066
497 0.496 5.384922304613138 68.57632542010104
498 0.497 5.316477856741921 68.31257032233142
499 0.498 5.2482971639684735 68.0488152245618
500 0.499 5.180380226292796 67.78506012679219
501 0.5 5.112727043714889 67.52130502902257
502 0.501 5.045337616234752 67.25754993125295
503 0.502 4.978211943852383 66.99379483348332
504 0.503 4.911350026567785 66.7300397357137
505 0.504 4.844751864380957 66.46628463794409
506 0.505 4.778417457291896 66.20252954017447
507 0.506 4.712346805300607 65.93877444240485
508 0.507 4.646539908407087 65.67501934463523
509 0.508 4.580996766611335 65.41126424686561
510 0.509 4.515717379913356 65.147509149096
511 0.51 4.4507017483131435 64.88375405132638
512 0.511 4.385949871810702 64.61999895355675
513 0.512 4.32146175040603 64.35624385578713
514 0.513 4.2572373840991276 64.09248875801751
515 0.514 4.193276772889995 63.82873366024789
516 0.515 4.129579916778631 63.564978562478274
517 0.516 4.066146815765039 63.301223464708656
518 0.517 4.002977469849215 63.03746836693903
519 0.518 3.94007187903116 62.77371326916941
520 0.519 3.8774300433108757 62.509958171399795
521 0.52 3.815051962688361 62.24620307363018
522 0.521 3.752937637163615 61.98244797586055
523 0.522 3.6910870667366393 61.718692878090934
524 0.523 3.6295002514074324 61.454937780321316
525 0.524 3.568177191175996 61.1911826825517
526 0.525 3.5071178860423298 60.92742758478207
527 0.526 3.4463223360064315 60.663672487012455
528 0.527 3.3857905410683045 60.39991738924284
529 0.528 3.325522501227946 60.13616229147322
530 0.529 3.2655182164853582 59.872407193703594
531 0.53 3.205777686840539 59.60865209593398
532 0.531 3.14630091229349 59.34489699816436
533 0.532 3.087087892844211 59.08114190039474
534 0.533 3.0281386284927003 58.817386802625116
535 0.534 2.96945311923896 58.5536317048555
536 0.535 2.9110313650829895 58.28987660708588
537 0.536 2.8528733660247885 58.02612150931626
538 0.537 2.794979122064357 57.762366411546644
539 0.538 2.737348633201695 57.49861131377702
540 0.539 2.6799818994368025 57.2348562160074
541 0.54 2.6228789207696797 56.97110111823778
542 0.541 2.566039697200327 56.707346020468165
543 0.542 2.5094642287287434 56.44359092269854
544 0.543 2.453152515354929 56.17983582492892
545 0.544 2.3971045570788854 55.916080727159304
546 0.545 2.341320353900611 55.652325629389686
547 0.546 2.2857999058201064 55.38857053162006
548 0.547 2.2305432128373703 55.12481543385044
549 0.548 2.1755502749524047 54.861060336080826
550 0.549 2.1208210921652086 54.59730523831121
551 0.55 2.066355664475782 54.33355014054158
552 0.551 2.012153991884126 54.069795042771965
553 0.552 1.9582160743902386 53.80603994500235
554 0.553 1.9045419119941207 53.54228484723273
555 0.554 1.8511315046957733 53.278529749463104
556 0.555 1.7979848524951954 53.014774651693486
557 0.556 1.7451019553923852 52.75101955392387
558 0.557 1.6924828133873473 52.48726445615425
559 0.558 1.6401274264800771 52.223509358384625
560 0.559 1.5880357946705774 51.95975426061501
561 0.56 1.5362079179588464 51.69599916284539
562 0.561 1.4846437963448866 51.43224406507577
563 0.562 1.4333434298286956 51.16848896730615
564 0.5630000000000001 1.382306818410275 50.90473386953653
565 0.5640000000000001 1.331533962089622 50.64097877176691
566 0.5650000000000001 1.2810248608667396 50.37722367399729
567 0.5660000000000001 1.2307795147416276 50.113468576227675
568 0.5670000000000001 1.1807979237142852 49.84971347845805
569 0.5680000000000001 1.1310800877847114 49.58595838068843
570 0.5690000000000001 1.081626006952908 49.322203282918814
571 0.5700000000000001 1.0324356812188742 49.058448185149196
572 0.5710000000000001 0.983509110582609 48.79469308737957
573 0.5720000000000001 0.9348462950441143 48.53093798960995
574 0.5730000000000001 0.8864472346033891 48.267182891840335
575 0.5740000000000001 0.8383119292604344 48.00342779407072
576 0.5750000000000001 0.7904403790152474 47.73967269630109
577 0.5760000000000001 0.7428325838678318 47.475917598531474
578 0.577 0.6954885438181893 47.212162500761885
579 0.578 0.6484082588663127 46.94840740299227
580 0.579 0.6015917290122057 46.68465230522265
581 0.58 0.5550389542558674 46.420897207453024
582 0.581 0.5087499345972994 46.157142109683406
583 0.582 0.46272467003650064 45.89338701191379
584 0.583 0.4169631605734714 45.62963191414417
585 0.584 0.3714654062082121 45.365876816374545
586 0.585 0.3262314069407224 45.10212171860493
587 0.586 0.2812611627710022 44.83836662083531
588 0.587 0.2365546736990516 44.57461152306569
589 0.588 0.19211193972487095 44.310856425296066
590 0.589 0.14793296084845942 44.04710132752645
591 0.59 0.10401773706981787 43.78334622975683
592 0.591 0.060366268388945876 43.51959113198721
593 0.592 0.016978554805842982 43.25583603421759
594 0.593 -0.02614540367948992 42.99208093644797
595 0.594 -0.06900560706705283 42.72832583867835
596 0.595 -0.1116020553568462 42.464570740908734
597 0.596 -0.15393474854887002 42.20081564313911
598 0.597 -0.19600368664312473 41.93706054536949
599 0.598 -0.237808869639609 41.67330544759987
600 0.599 -0.27935029753832463 41.409550349830255
601 0.6 -0.32062797033927026 41.14579525206063
602 0.601 -0.3616418880424459 40.88204015429101
603 0.602 -0.402392050647852 40.618285056521394
604 0.603 -0.44287845815548854 40.354529958751776
605 0.604 -0.48310111056535554 40.09077486098216
606 0.605 -0.523060007877453 39.82701976321253
607 0.606 -0.5627551500917809 39.563264665442915
608 0.607 -0.6021865372083388 39.2995095676733
609 0.608 -0.6413541692271272 39.03575446990368
610 0.609 -0.680258046148146 38.771999372134054
611 0.61 -0.7188981679713957 38.508244274364436
612 0.611 -0.757274534696875 38.24448917659482
613 0.612 -0.7953871463245852 37.9807340788252
614 0.613 -0.8332360028545254 37.716978981055576
615 0.614 -0.8708211042866965 37.45322388328596
616 0.615 -0.908142450621098 37.18946878551634
617 0.616 -0.9452000418577295 36.92571368774672
618 0.617 -0.9819938779965911 36.6619585899771
619 0.618 -1.0185239590376836 36.39820349220748
620 0.619 -1.054790284981006 36.13444839443786
621 0.62 -1.0907928558265594 35.87069329666824
622 0.621 -1.1265316715743428 35.60693819889862
623 0.622 -1.1620067322243566 35.343183101129
624 0.623 -1.1972180377766004 35.07942800335938
625 0.624 -1.2321655882310751 34.815672905589764
626 0.625 -1.2668493835877803 34.55191780782014
627 0.626 -1.3012694238467155 34.28816271005052
628 0.627 -1.3354257090078816 34.0244076122809
629 0.628 -1.3693182390712777 33.760652514511285
630 0.629 -1.4029470140369042 33.49689741674166
631 0.63 -1.4363120339047608 33.23314231897204
632 0.631 -1.4694132986748483 32.969387221202425
633 0.632 -1.5022508083471662 32.70563212343281
634 0.633 -1.5348245629217139 32.44187702566319
635 0.634 -1.5671345623984922 32.178121927893564
636 0.635 -1.599180806777501 31.914366830123946
637 0.636 -1.6309632960587401 31.650611732354328
638 0.637 -1.6624820302422099 31.386856634584706
639 0.638 -1.6937370093279096 31.12310153681509
640 0.639 -1.72472823331584 30.859346439045467
641 0.64 -1.755455702206001 30.59559134127585
642 0.641 -1.785919415998392 30.331836243506228
643 0.642 -1.8161193746930133 30.06808114573661
644 0.643 -1.846055578289865 29.80432604796699
645 0.644 -1.8757280267889471 29.54057095019737
646 0.645 -1.9051367201902598 29.27681585242775
647 0.646 -1.9342816584938027 29.01306075465813
648 0.647 -1.9631628416995761 28.74930565688851
649 0.648 -1.99178026980758 28.48555055911889
650 0.649 -2.020133942817814 28.22179546134927
651 0.65 -2.0482238607302783 27.958040363579652
652 0.651 -2.0760500235449735 27.69428526581003
653 0.652 -2.1036124312618987 27.430530168040413
654 0.653 -2.1309110838810543 27.16677507027079
655 0.654 -2.15794598140244 26.903019972501173
656 0.655 -2.1847171238260565 26.639264874731552
657 0.656 -2.2112245111519035 26.375509776961934
658 0.657 -2.2374681433799806 26.111754679192313
659 0.658 -2.263448020510288 25.847999581422695
660 0.659 -2.289164142542826 25.584244483653077
661 0.66 -2.3146165094775943 25.320489385883455
662 0.661 -2.339805121314593 25.056734288113837
663 0.662 -2.364729978053822 24.792979190344216
664 0.663 -2.3893910796952813 24.529224092574598
665 0.664 -2.4137884262389715 24.265468994804976
666 0.665 -2.4379220176848913 24.00171389703536
667 0.666 -2.461791854033042 23.737958799265737
668 0.667 -2.485397935283423 23.47420370149612
669 0.668 -2.508740261436034 23.210448603726498
670 0.669 -2.531818832490876 22.94669350595688
671 0.67 -2.554633648447948 22.68293840818726
672 0.671 -2.5771847093072506 22.41918331041764
673 0.672 -2.5994720150687836 22.15542821264802
674 0.673 -2.6214955657325465 21.8916731148784
675 0.674 -2.6432553612985403 21.62791801710878
676 0.675 -2.664751401766764 21.36416291933916
677 0.676 -2.6859836871372185 21.10040782156954
678 0.677 -2.706952217409903 20.836652723799922
679 0.678 -2.7276569925848184 20.5728976260303
680 0.679 -2.748098012661964 20.309142528260683
681 0.68 -2.7682752776413397 20.04538743049106
682 0.681 -2.7881887875229463 19.781632332721443
683 0.682 -2.807838542306783 19.517877234951822
684 0.683 -2.82722454199285 19.254122137182204
685 0.684 -2.8463467865811474 18.990367039412583
686 0.685 -2.865205276071675 18.726611941642965
687 0.686 -2.8838000104644332 18.462856843873343
688 0.687 -2.9021309897594216 18.199101746103725
689 0.6880000000000001 -2.920198213956641 17.935346648334107
690 0.6890000000000001 -2.9380016830560898 17.671591550564486
691 0.6900000000000001 -2.95554139705777 17.407836452794868
692 0.6910000000000001 -2.9728173559616797 17.144081355025246
693 0.6920000000000001 -2.98982955976782 16.88032625725563
694 0.6930000000000001 -3.006578008476191 16.616571159486007
695 0.6940000000000001 -3.023062702086792 16.35281606171639
696 0.6950000000000001 -3.0392836405996237 16.089060963946768
697 0.6960000000000001 -3.0552408240146858 15.825305866177148
698 0.6970000000000001 -3.0709342523319783 15.561550768407528
699 0.6980000000000001 -3.0863639255515007 15.297795670637909
700 0.6990000000000001 -3.101529843673254 15.034040572868289
701 0.7000000000000001 -3.1164320066972375 14.77028547509867
702 0.7010000000000001 -3.1310704146234514 14.506530377329051
703 0.7020000000000001 -3.1454450674518957 14.242775279559432
704 0.7030000000000001 -3.1595559651825704 13.979020181789812
705 0.704 -3.173403107815474 13.71526508402022
706 0.705 -3.186986495350609 13.451509986250601
707 0.706 -3.200306127787975 13.187754888480981
708 0.707 -3.2133620051275713 12.923999790711362
709 0.708 -3.226154127369398 12.660244692941742
710 0.709 -3.2386824945134545 12.396489595172122
711 0.71 -3.250947106559742 12.132734497402502
712 0.711 -3.2629479635082594 11.868979399632883
713 0.712 -3.274685065359008 11.605224301863263
714 0.713 -3.2861584121119862 11.341469204093643
715 0.714 -3.297368003767195 11.077714106324024
716 0.715 -3.3083138403246344 10.813959008554406
717 0.716 -3.318995921784304 10.550203910784786
718 0.717 -3.329414248146204 10.286448813015166
719 0.718 -3.339568819410334 10.022693715245547
720 0.719 -3.349459635576695 9.758938617475927
721 0.72 -3.359086696645286 9.495183519706307
722 0.721 -3.3684500026161075 9.231428421936688
723 0.722 -3.3775495534891595 8.967673324167068
724 0.723 -3.386385349264442 8.703918226397448
725 0.724 -3.3949573899419545 8.440163128627828
726 0.725 -3.4032656755216975 8.176408030858209
727 0.726 -3.411310206003671 7.912652933088589
728 0.727 -3.4190909813878747 7.648897835318969
729 0.728 -3.426608001674309 7.38514273754935
730 0.729 -3.4338612668629733 7.12138763977973
731 0.73 -3.440850776953868 6.85763254201011
732 0.731 -3.4475765319469938 6.593877444240491
733 0.732 -3.4540385318423494 6.330122346470871
734 0.733 -3.4602367766399356 6.066367248701251
735 0.734 -3.4661712663397517 5.8026121509316315
736 0.735 -3.4718420009417987 5.538857053162012
737 0.736 -3.4772489804460758 5.275101955392393
738 0.737 -3.4823922048525833 5.011346857622773
739 0.738 -3.4872716741613212 4.747591759853154
740 0.739 -3.4918873883722896 4.483836662083534
741 0.74 -3.4962393474854885 4.220081564313914
742 0.741 -3.500327551500918 3.9563264665442945
743 0.742 -3.504152000418577 3.692571368774675
744 0.743 -3.507712694238467 3.428816271005055
745 0.744 -3.511009632960587 3.1650611732354355
746 0.745 -3.514042816584938 2.9013060754658158
747 0.746 -3.516812245111519 2.6375509776961965
748 0.747 -3.51931791854033 2.373795879926577
749 0.748 -3.521559836871372 2.110040782156957
750 0.749 -3.523538000104644 1.8462856843873374
751 0.75 -3.5252524082401466 1.5825305866177177
752 0.751 -3.5267030612778796 1.3187754888480983
753 0.752 -3.527889959217843 1.0550203910784786
754 0.753 -3.5288131020600364 0.7912652933088589
755 0.754 -3.5294724898044607 0.5275101955392393
756 0.755 -3.529868122451115 0.26375509776961964
757 0.756 -3.53 -0.0
758 0.757 -3.529868258821984 -0.26334542645520465
759 0.758 -3.529473585244357 -0.5258625594820476
760 0.759 -3.528816814287917 -0.7875379361812769
761 0.76 -3.5278987944608495 -1.0483580446685132
762 0.761 -3.5267203878077495 -1.3083093240098178
763 0.762 -3.5252824699586816 -1.5673781641569344
764 0.763 -3.5235859301783603 -1.8255509058826842
765 0.764 -3.521631671415334 -2.08281384071638
766 0.765 -3.5194206103512697 -2.339153210879202
767 0.766 -3.5169536774503007 -2.5945552092195356
768 0.767 -3.5142318170084192 -2.849005979148348
769 0.768 -3.5112559872029556 -3.1024916145746038
770 0.769 -3.508027160142105 -3.354998159840633
771 0.77 -3.5045463219145376 -3.6065116096574625
772 0.771 -3.5008144726390484 -3.8570179090402585
773 0.772 -3.496832626514296 -4.106502953243646
774 0.773 -3.4926018118685906 -4.354952587697073
775 0.774 -3.4881230712097513 -4.6023526079403085
776 0.775 -3.4833974612750267 -4.848688759558642
777 0.776 -3.478426053081096 -5.093946738118379
778 0.777 -3.473209931974092 -5.338112189102204
779 0.778 -3.467750197679749 -5.581170707844505
780 0.779 -3.4620479643535536 -5.823107839466813
781 0.78 -3.456104360631014 -6.063909078813111
782 0.781 -3.4499205296779585 -6.303559870385286
783 0.782 -3.44349762924091 -6.542045608278427
784 0.783 -3.4368368316975237 -6.779351636116251
785 0.784 -3.429939324107103 -7.015463246986506
786 0.785 -3.4228063082611486 -7.250365683376225
787 0.786 -3.415439000734006 -7.484044137107265
788 0.787 -3.4078386329335584 -7.716483749271566
789 0.788 -3.400006451151989 -7.947669610166551
790 0.789 -3.3919437166166033 -8.177586759230548
791 0.79 -3.383651705540732 -8.406220184978093
792 0.791 -3.3751317091746778 -8.633554824935374
793 0.792 -3.3663850338567327 -8.859575565575579
794 0.793 -3.357413001064278 -9.084267242254263
795 0.794 -3.3482169474649157 -9.307614639144719
796 0.795 -3.338798224967705 -9.529602489173376
797 0.796 -3.329158200774414 -9.750215473955187
798 0.797 -3.319298257430894 -9.96943822372895
799 0.798 -3.309219792878457 -10.187255317292745
800 0.799 -3.2989242205053713 -10.403651281939277
801 0.8 -3.288412969198401 -10.618610593391233
802 0.801 -3.2776874833943848 -10.832117675736706
803 0.802 -3.2667492231319244 -11.044156901364554
804 0.803 -3.255599664103109 -11.254712590899747
805 0.804 -3.244240297705315 -11.463769013138787
806 0.805 -3.232672631093054 -11.671310384985043
807 0.806 -3.220898187229915 -11.877320871384171
808 0.807 -3.208918504940547 -12.081784585259433
809 0.808 -3.1967351389627123 -12.284685587447138
810 0.809 -3.1843496599994077 -12.48600788663196
811 0.81 -3.1717636547710457 -12.68573543928235
812 0.811 -3.1589787260677085 -12.883852149585904
813 0.812 -3.1459964928014594 -13.080341869384721
814 0.8130000000000001 -3.1328185900587147 -13.275188398110837
815 0.8140000000000001 -3.1194466691526945 -13.46837548272148
816 0.8150000000000001 -3.105882397675921 -13.659886817634606
817 0.8160000000000001 -3.0921274595528008 -13.84970604466415
818 0.8170000000000001 -3.0781835550922523 -14.037816752955413
819 0.8180000000000001 -3.0640524010404113 -14.224202478920587
820 0.8190000000000001 -3.0497357306333956 -14.408846706173861
821 0.8200000000000001 -3.035235293650129 -14.591732865467081
822 0.8210000000000001 -3.020552856465251 -14.772844334624875
823 0.8220000000000001 -3.005690202102056 -14.952164438480287
824 0.8230000000000001 -2.990649130285541 -15.129676448809864
825 0.8240000000000001 -2.9754314574954686 -15.30536358426932
826 0.8250000000000001 -2.9600390170195463 -15.479209010328649
827 0.8260000000000001 -2.944473659006613 -15.65119583920776
828 0.8270000000000001 -2.928737250519963 -15.821307129811563
829 0.8280000000000001 -2.9128316755906454 -15.989525887665678
830 0.8290000000000001 -2.8967588352709246 -16.15583506485146
831 0.8300000000000001 -2.8805206476877134 -16.320217559941696
832 0.8310000000000001 -2.8641190480961445 -16.482656217935734
833 0.8320000000000001 -2.847555988933158 -16.643133830195
834 0.833 -2.8308334398711823 -16.801633134378342
835 0.834 -2.8139533878718637 -16.958136814377365
836 0.835 -2.7969178372398695 -17.11262750025186
837 0.836 -2.7797288096767483 -17.265087768165163
838 0.837 -2.762388344334859 -17.41550014031952
839 0.838 -2.7448984978713677 -17.56384708489145
840 0.839 -2.727261344502306 -17.710111015967176
841 0.84 -2.7094789760566886 -17.854274293477946
842 0.841 -2.6915535020306995 -17.996319223135437
843 0.842 -2.6734870496419547 -18.13622805636711
844 0.843 -2.6552817638838095 -18.27398299025161
845 0.844 -2.636939807579741 -18.409566167454116
846 0.845 -2.6184633614377937 -18.542959676161743
847 0.846 -2.5998546241050944 -18.67414555001892
848 0.847 -2.5811158122224187 -18.803105768062732
849 0.848 -2.562249160478842 -18.929822254658305
850 0.849 -2.5432569216664325 -19.05427687943422
851 0.85 -2.5241413667350288 -19.17645145721786
852 0.851 -2.504904784847063 -19.296327747970764
853 0.852 -2.4855494834324743 -19.41388745672405
854 0.853 -2.4660777882436586 -19.529112233513764
855 0.854 -2.446492043410497 -19.641983673316247
856 0.855 -2.426794611495457 -19.752483315983536
857 0.856 -2.4069878735487418 -19.860592646178734
858 0.857 -2.3870742291635065 -19.96629309331136
859 0.858 -2.367056096531161 -20.06956603147275
860 0.859 -2.346935912496699 -20.170392779371454
861 0.86 -2.3267161326141337 -20.268754600268547
862 0.861 -2.3063992312019623 -20.364632701913063
863 0.862 -2.285987701398716 -20.458008236477355
864 0.863 -2.265484055218571 -20.548862300492463
865 0.864 -2.2448908236070206 -20.637175934783482
866 0.865 -2.2242105564966077 -20.72293012440497
867 0.866 -2.2034458228627396 -20.806105798576297
868 0.867 -2.182599210779543 -20.886683830617027
869 0.868 -2.1616733274758064 -20.964645037882285
870 0.869 -2.140670799390972 -21.039970181698166
871 0.87 -2.119594272231192 -21.112639967297078
872 0.871 -2.0984464110254666 -21.18263504375311
873 0.872 -2.077229900181825 -21.249936003917448
874 0.873 -2.0559474435435825 -21.314523384353727
875 0.874 -2.0346017644456627 -21.376377665273402
876 0.875 -2.0131956057709814 -21.435479270471127
877 0.876 -1.991731730006896 -21.49180856726015
878 0.877 -1.970212919301713 -21.54534586640766
879 0.878 -1.9486419755212787 -21.596071422070178
880 0.879 -1.92702172030561 -21.64396543172894
881 0.88 -1.90535499512561 -21.68900803612526
882 0.881 -1.8836446613398368 -21.731179319195896
883 0.882 -1.8618936002513375 -21.770459308008473
884 0.883 -1.8401047131645603 -21.806827972696798
885 0.884 -1.8182809214423061 -21.840265226396273
886 0.885 -1.7964251665627715 -21.870750925179262
887 0.886 -1.7745404101766362 -21.898264867990477
888 0.887 -1.7526296341642271 -21.922786796582326
889 0.888 -1.7306958406927428 -21.944296395450316
890 0.889 -1.708742052273539 -21.96277329176843
891 0.89 -1.6867713118194885 -21.978197055324483
892 0.891 -1.664786682702393 -21.990547198455495
893 0.892 -1.6427912488104717 -21.99980317598311
894 0.893 -1.6207881146059062 -22.005944385148915
895 0.894 -1.5987804051824541 -22.008950165549862
896 0.895 -1.5767712663231253 -22.008799799073604
897 0.896 -1.554763864557918 -22.005472509833915
898 0.897 -1.532761387221643 -21.998947464106028
899 0.898 -1.5107670425117687 -21.989203770262026
900 0.899 -1.4887840595463768 -21.976220478706225
901 0.9 -1.4668156884221568 -21.959976581810537
902 0.901 -1.4448652002724658 -21.94045101384985
903 0.902 -1.4229358873254614 -21.917622650937407
904 0.903 -1.4010310629622975 -21.891470310960187
905 0.904 -1.379154061775382 -21.86197275351427
906 0.905 -1.3573082396266962 -21.829108679840203
907 0.906 -1.3354969737061877 -21.79285673275842
908 0.907 -1.3137236625902193 -21.753195496604558
909 0.908 -1.2919917263000884 -21.71010349716488
910 0.909 -1.2703046063606087 -21.663559201611637
911 0.91 -1.2486657658587528 -21.61354101843843
912 0.911 -1.2270786895023689 -21.560027297395596
913 0.912 -1.20554688367895 -21.502996329425596
914 0.913 -1.1840738765144807 -21.442426346598374
915 0.914 -1.1626632179323393 -21.37829552204674
916 0.915 -1.141318479712262 -21.31058196990173
917 0.916 -1.1200432555493887 -21.239263745228037
918 0.917 -1.0988411611133466 -21.164318843959293
919 0.918 -1.0777158341074302 -21.085725202833544
920 0.919 -1.0566709343278133 -21.003460699328546
921 0.92 -1.0357101437228553 -20.917503151597213
922 0.921 -1.0148371664524471 -20.827830318402913
923 0.922 -0.9940557289474392 -20.734419899054917
924 0.923 -0.9733695799691295 -20.637249533343734
925 0.924 -0.9527824906688073 -20.536296801476492
926 0.925 -0.932298254647378 -20.43153922401233
927 0.926 -0.911920688015035 -20.322954261797758
928 0.927 -0.891653629451011 -20.21051931590204
929 0.928 -0.871500940263384 -20.09421172755257
930 0.929 -0.851466504448951 -19.974008778070235
931 0.93 -0.8315542287531699 -19.849887688804802
932 0.931 -0.8117680427301627 -19.721825621070316
933 0.932 -0.7921118988027801 -19.58979967608044
934 0.933 -0.7725897723227354 -19.45378689488383
935 0.934 -0.7532056616308065 -19.31376425829956
936 0.935 -0.7339635881170857 -19.1697086868524
937 0.936 -0.7148675962813299 -19.02159704070837
938 0.937 -0.6959217537933157 -18.869406119609852
939 0.9380000000000001 -0.6771301515533373 -18.71311266281127
940 0.9390000000000001 -0.658496903752686 -18.552693349014152
941 0.9400000000000001 -0.640026147934272 -18.388124796302833
942 0.9410000000000001 -0.6217220450532426 -18.219383562079514
943 0.9420000000000001 -0.6035887795377226 -18.0464461429999
944 0.9430000000000001 -0.5856305593495704 -17.86928897490838
945 0.9440000000000001 -0.5678516160452434 -17.687888432773555
946 0.9450000000000001 -0.5502562048366842 -17.50222083062347
947 0.9460000000000001 -0.5328486046523152 -17.31226242148116
948 0.9470000000000001 -0.5156331181980556 -17.11798939729983
949 0.9480000000000001 -0.49861407201844216 -16.919377888898424
950 0.9490000000000001 -0.48179581655777765 -16.716403965896816
951 0.9500000000000001 -0.46518272622138135 -16.509043636651384
952 0.9510000000000001 -0.4487791994368645 -16.297272848190172
953 0.9520000000000001 -0.4325896587155126 -16.08106748614849
954 0.9530000000000001 -0.4166185507136848 -15.860403374704028
955 0.9540000000000001 -0.4008703462943354 -15.635256276512564
956 0.9550000000000001 -0.38534954058853454 -15.405601892642961
957 0.9560000000000001 -0.3700606530571169 -15.1714158625129
958 0.9570000000000001 -0.35500822755234157 -14.932673763823967
959 0.9580000000000001 -0.3401968323796615 -14.689351112497285
960 0.9590000000000001 -0.3256310603595127 -14.441423362608566
961 0.96 -0.3113155288892204 -14.188865906323937
962 0.961 -0.2972548800049107 -13.931654073834803
963 0.962 -0.283453780443545 -13.669763133293705
964 0.963 -0.2699169217049674 -13.40316829074925
965 0.964 -0.2566490201140629 -13.13184469008193
966 0.965 -0.24365481688293597 -12.85576741293904
967 0.966 -0.23093907817319975 -12.574911478670558
968 0.967 -0.2185065951582822 -12.289251844264012
969 0.968 -0.20636218408583665 -11.998763404280208
970 0.969 -0.19451068634019608 -11.703420990788493
971 0.97 -0.1829569685048955 -11.403199373302103
972 0.971 -0.1717059224252628 -11.0980732587136
973 0.972 -0.16076246527106933 -10.788017291230172
974 0.973 -0.15013153959925032 -10.473006052309104
975 0.974 -0.13981811341668413 -10.15301406059306
976 0.975 -0.12982718024304196 -9.828015771845532
977 0.976 -0.12016375917369689 -9.497985578886155
978 0.977 -0.11083289494270228 -9.16289781152615
979 0.978 -0.10183965798583047 -8.822726736503629
980 0.979 -0.09318914450368003 -8.477446557419032
981 0.98 -0.0848864765248444 -8.127031414670473
982 0.981 -0.07693680196914619 -7.771455385389068
983 0.982 -0.06934529471093943 -7.410692483374464
984 0.983 -0.06211715464246903 -7.044716659030019
985 0.984 -0.05525760773730248 -6.673501799298304
986 0.985 -0.0487719061138224 -6.297021727596473
987 0.986 -0.04266532809878345 -5.915250203751592
988 0.987 -0.03694317829093494 -5.528160923936013
989 0.988 -0.03161078762470844 -5.135727520602796
990 0.989 -0.02667351343396925 -4.73792356242108
991 0.99 -0.022136739515832192 -4.334722554211425
992 0.991 -0.01800587619454248 -3.926097936881179
993 0.992 -0.014286360385421982 -3.5120230873599203
994 0.993 -0.01098365565887837 -3.0924713185347503
995 0.994 -0.008103252304480618 -2.6674158791857323
996 0.995 -0.00565066739509819 -2.23682995392127
997 0.996 -0.0036314448511047567 -1.8006866631134368
998 0.997 -0.0020511555046469144 -1.35895906283335
999 0.998 -0.0009153971639777113 -0.9116201447866197
1000 0.999 -0.00022979467785416377 -0.4586428362486271
1001 1.0 -0.0 -0.0
